{
    "name": "Bot's Life 3v3 NS",    
    "description":"Small Planet good for rush with bots",
    "version":"1.0",
    "creator":"TheRealF",
    "players":[6, 6],

    
    "planets": [
        {
            "name": "Daeron",
            "mass": 5000,
            "position_x": 28200,
            "position_y": -4800,
            "velocity_x": 22.184499740600586,
            "velocity_y": 130.33396911621094,
            "required_thrust_to_move": 3,
            "starting_planet": true,
            "respawn": false,
            "start_destroyed": false,
            "min_spawn_delay": 0,
            "max_spawn_delay": 0,
            "planet": {
                "seed": 1427421312,
                "radius": 500,
                "heightRange": 0,
                "waterHeight": 0,
                "waterDepth": 0,
                "temperature": 0,
                "metalDensity": 25,
                "metalClusters": 25,
                "metalSpotLimit": -1,
                "biomeScale": 50,
                "biome": "moon",
                "symmetryType": "terrain and CSG",
                "symmetricalMetal": true,
                "symmetricalStarts": false,
                "numArmies": 2,
                "landingZonesPerArmy": 0,
                "landingZoneSize": 0
            },
            "planetCSG": [
                {
                    "weight": [
                        0,
                        0,
                        0,
                        0
                    ],
                    "spec": "/pa/terrain/mountain/brushes/mountain_henge.json",
                    "proj": "BP_Bend",
                    "transform": [
                        1.2266936302185059,
                        -0.00009040842996910214,
                        0.09012302756309509,
                        36.778724670410156,
                        -0.00009040842996910214,
                        1.2299972772598267,
                        0.0024644711520522833,
                        1.0057374238967896,
                        -0.09012302756309509,
                        -0.0024644711520522833,
                        1.2266912460327148,
                        500.6060791015625
                    ],
                    "op": "BO_Add",
                    "rotation": 0,
                    "scale": [
                        1.2299997806549072,
                        1.2299997806549072,
                        1.2299997806549072
                    ],
                    "height": 501.956298828125,
                    "position": [
                        36.778717041015625,
                        1.0057373046875,
                        500.6060791015625
                    ],
                    "weightHard": false,
                    "weightScale": [
                        1,
                        1,
                        1
                    ],
                    "mirrored": false,
                    "twinId": 13,
                    "flooded": false,
                    "pathable": false,
                    "mergeable": false,
                    "no_features": true
                },
                {
                    "weight": [
                        0,
                        0,
                        0,
                        0
                    ],
                    "spec": "/pa/terrain/mountain/brushes/mountain_henge.json",
                    "proj": "BP_Bend",
                    "transform": [
                        1.2266936302185059,
                        -0.00009040842996910214,
                        0.09012302756309509,
                        36.77872848510742,
                        -0.00009040842996910214,
                        1.2299972772598267,
                        0.0024644711520522833,
                        1.0057374238967896,
                        0.09012302756309509,
                        0.0024644711520522833,
                        -1.2266912460327148,
                        -500.6060791015625
                    ],
                    "op": "BO_Add",
                    "rotation": 0,
                    "scale": [
                        1.2299997806549072,
                        1.2299997806549072,
                        1.2299997806549072
                    ],
                    "height": 501.956298828125,
                    "position": [
                        36.778717041015625,
                        1.0057373046875,
                        500.6060791015625
                    ],
                    "weightHard": false,
                    "weightScale": [
                        1,
                        1,
                        1
                    ],
                    "mirrored": true,
                    "twinId": 13,
                    "flooded": false,
                    "pathable": false,
                    "mergeable": false,
                    "no_features": true
                }
            ],
            "metal_spots": [
                [
                    -227.396728515625,
                    -27.25665283203125,
                    443.6199951171875
                ],
                [
                    -227.396728515625,
                    -27.25665283203125,
                    -443.6199951171875
                ],
                [
                    -271.88201904296875,
                    -46.486328125,
                    415.1278076171875
                ],
                [
                    -271.88201904296875,
                    -46.486328125,
                    -415.1278076171875
                ],
                [
                    -128.946533203125,
                    -189.6236572265625,
                    446.32318115234375
                ],
                [
                    -128.946533203125,
                    -189.6236572265625,
                    -446.32318115234375
                ],
                [
                    -167.74310302734375,
                    -213.5154571533203,
                    422.11676025390625
                ],
                [
                    -167.74310302734375,
                    -213.5154571533203,
                    -422.11676025390625
                ],
                [
                    236.97467041015625,
                    -257.7383728027344,
                    357.13165283203125
                ],
                [
                    236.97467041015625,
                    -257.7383728027344,
                    -357.13165283203125
                ],
                [
                    205.38421630859375,
                    -233.30917358398438,
                    392.23748779296875
                ],
                [
                    205.38421630859375,
                    -233.30917358398438,
                    -392.23748779296875
                ],
                [
                    294.0435791015625,
                    -52.366851806640625,
                    399.7623291015625
                ],
                [
                    294.0435791015625,
                    -52.366851806640625,
                    -399.7623291015625
                ],
                [
                    335.70526123046875,
                    -62.62774658203125,
                    363.1986083984375
                ],
                [
                    335.70526123046875,
                    -62.62774658203125,
                    -363.1986083984375
                ],
                [
                    122.20999145507812,
                    264.22735595703125,
                    405.90692138671875
                ],
                [
                    122.20999145507812,
                    264.22735595703125,
                    -405.90692138671875
                ],
                [
                    129.35659790039062,
                    300.13494873046875,
                    378.41497802734375
                ],
                [
                    129.35659790039062,
                    300.13494873046875,
                    -378.41497802734375
                ],
                [
                    -119.65657043457031,
                    267.7347412109375,
                    405.73150634765625
                ],
                [
                    -119.65657043457031,
                    267.7347412109375,
                    -405.73150634765625
                ],
                [
                    -122.43118286132812,
                    311.11907958984375,
                    372.88323974609375
                ],
                [
                    -122.43118286132812,
                    311.11907958984375,
                    -372.88323974609375
                ],
                [
                    -95.72599792480469,
                    205.19882202148438,
                    445.0489501953125
                ],
                [
                    -95.72599792480469,
                    205.19882202148438,
                    -445.0489501953125
                ],
                [
                    115.62319946289062,
                    203.6829376220703,
                    441.5709228515625
                ],
                [
                    115.62319946289062,
                    203.6829376220703,
                    -441.5709228515625
                ],
                [
                    225.35308837890625,
                    -23.769065856933594,
                    444.4619140625
                ],
                [
                    225.35308837890625,
                    -23.769065856933594,
                    -444.4619140625
                ],
                [
                    151.95953369140625,
                    -190.917724609375,
                    437.080810546875
                ],
                [
                    151.95953369140625,
                    -190.917724609375,
                    -437.080810546875
                ],
                [
                    -72.68734741210938,
                    -169.29014587402344,
                    466.837646484375
                ],
                [
                    -72.68734741210938,
                    -169.29014587402344,
                    -466.837646484375
                ],
                [
                    -180.37144470214844,
                    13.405662536621094,
                    466.0626220703125
                ],
                [
                    -180.37144470214844,
                    13.405662536621094,
                    -466.0626220703125
                ],
                [
                    97.02967834472656,
                    155.35549926757812,
                    465.5986328125
                ],
                [
                    97.02967834472656,
                    155.35549926757812,
                    -465.5986328125
                ],
                [
                    27.213043212890625,
                    105.30302429199219,
                    488.5311279296875
                ],
                [
                    27.213043212890625,
                    105.30302429199219,
                    -488.5311279296875
                ],
                [
                    -49.20068359375,
                    149.31982421875,
                    474.1485595703125
                ],
                [
                    -49.20068359375,
                    149.31982421875,
                    -474.1485595703125
                ],
                [
                    -112.27247619628906,
                    3.0092926025390625,
                    488.03369140625
                ],
                [
                    -112.27247619628906,
                    3.0092926025390625,
                    -488.03369140625
                ],
                [
                    -47.969757080078125,
                    -121.6095962524414,
                    484.6898193359375
                ],
                [
                    -47.969757080078125,
                    -121.6095962524414,
                    -484.6898193359375
                ],
                [
                    -56.431373596191406,
                    -55.614036560058594,
                    495.17578125
                ],
                [
                    -56.431373596191406,
                    -55.614036560058594,
                    -495.17578125
                ],
                [
                    171.310791015625,
                    -40.3946533203125,
                    467.4449462890625
                ],
                [
                    171.310791015625,
                    -40.3946533203125,
                    -467.4449462890625
                ],
                [
                    120.42263793945312,
                    -143.03274536132812,
                    464.2220458984375
                ],
                [
                    120.42263793945312,
                    -143.03274536132812,
                    -464.2220458984375
                ],
                [
                    127.4292221069336,
                    -73.66993713378906,
                    477.5562744140625
                ],
                [
                    127.4292221069336,
                    -73.66993713378906,
                    -477.5562744140625
                ],
                [
                    -237.56805419921875,
                    178.69488525390625,
                    414.1836853027344
                ],
                [
                    -237.56805419921875,
                    178.69488525390625,
                    -414.1836853027344
                ],
                [
                    -279.2996826171875,
                    109.33743286132812,
                    411.9354248046875
                ],
                [
                    -279.2996826171875,
                    109.33743286132812,
                    -411.9354248046875
                ],
                [
                    -268.65155029296875,
                    262.8304443359375,
                    345.59930419921875
                ],
                [
                    -268.65155029296875,
                    262.8304443359375,
                    -345.59930419921875
                ],
                [
                    -361.94342041015625,
                    89.8857421875,
                    345.8409423828125
                ],
                [
                    -361.94342041015625,
                    89.8857421875,
                    -345.8409423828125
                ],
                [
                    -366.3509826660156,
                    244.52613830566406,
                    255.286865234375
                ],
                [
                    -366.3509826660156,
                    244.52613830566406,
                    -255.286865234375
                ],
                [
                    -404.6246643066406,
                    156.30657958984375,
                    262.82080078125
                ],
                [
                    -404.6246643066406,
                    156.30657958984375,
                    -262.82080078125
                ],
                [
                    -35.76325988769531,
                    -294.623046875,
                    417.2838134765625
                ],
                [
                    -35.76325988769531,
                    -294.623046875,
                    -417.2838134765625
                ],
                [
                    56.59892272949219,
                    -286.2435302734375,
                    419.788330078125
                ],
                [
                    56.59892272949219,
                    -286.2435302734375,
                    -419.788330078125
                ],
                [
                    120.13651275634766,
                    -337.1983642578125,
                    364.8453369140625
                ],
                [
                    120.13651275634766,
                    -337.1983642578125,
                    -364.8453369140625
                ],
                [
                    -82.64208984375,
                    -376.2161865234375,
                    336.1805419921875
                ],
                [
                    -82.64208984375,
                    -376.2161865234375,
                    -336.1805419921875
                ],
                [
                    2.5469532012939453,
                    -438.5152587890625,
                    259.97998046875
                ],
                [
                    2.5469532012939453,
                    -438.5152587890625,
                    -259.97998046875
                ],
                [
                    103.66751861572266,
                    -410.50244140625,
                    284.99786376953125
                ],
                [
                    103.66751861572266,
                    -410.50244140625,
                    -284.99786376953125
                ],
                [
                    300.0697021484375,
                    88.59246826171875,
                    401.2784423828125
                ],
                [
                    300.0697021484375,
                    88.59246826171875,
                    -401.2784423828125
                ],
                [
                    257.8585205078125,
                    170.7310791015625,
                    403.86199951171875
                ],
                [
                    257.8585205078125,
                    170.7310791015625,
                    -403.86199951171875
                ],
                [
                    268.4691162109375,
                    275.4451904296875,
                    333.8126220703125
                ],
                [
                    268.4691162109375,
                    275.4451904296875,
                    -333.8126220703125
                ],
                [
                    383.4051513671875,
                    88.45550537109375,
                    321.635009765625
                ],
                [
                    383.4051513671875,
                    88.45550537109375,
                    -321.635009765625
                ],
                [
                    403.9935302734375,
                    181.12957763671875,
                    248.4114990234375
                ],
                [
                    403.9935302734375,
                    181.12957763671875,
                    -248.4114990234375
                ],
                [
                    350.74609375,
                    266.3970947265625,
                    254.0457763671875
                ],
                [
                    350.74609375,
                    266.3970947265625,
                    -254.0457763671875
                ],
                [
                    2.3061866760253906,
                    507.2135009765625,
                    29.175811767578125
                ],
                [
                    2.3061866760253906,
                    507.2135009765625,
                    -29.175811767578125
                ],
                [
                    -451.85205078125,
                    -230.5479736328125,
                    28.043350219726562
                ],
                [
                    -451.85205078125,
                    -230.5479736328125,
                    -28.043350219726562
                ],
                [
                    435.582763671875,
                    -265.7183837890625,
                    20.753150939941406
                ],
                [
                    435.582763671875,
                    -265.7183837890625,
                    -20.753150939941406
                ],
                [
                    418.11083984375,
                    -227.29266357421875,
                    156.175537109375
                ],
                [
                    418.11083984375,
                    -227.29266357421875,
                    -156.175537109375
                ],
                [
                    461.02099609375,
                    -164.935791015625,
                    106.82949829101562
                ],
                [
                    461.02099609375,
                    -164.935791015625,
                    -106.82949829101562
                ],
                [
                    368.3377685546875,
                    -311.07598876953125,
                    134.8900146484375
                ],
                [
                    368.3377685546875,
                    -311.07598876953125,
                    -134.8900146484375
                ],
                [
                    492.8890380859375,
                    -91.07489013671875,
                    25.081863403320312
                ],
                [
                    492.8890380859375,
                    -91.07489013671875,
                    -25.081863403320312
                ],
                [
                    313.79913330078125,
                    -387.1419677734375,
                    46.98738098144531
                ],
                [
                    313.79913330078125,
                    -387.1419677734375,
                    -46.98738098144531
                ],
                [
                    1.8866767883300781,
                    471.5982666015625,
                    164.7050018310547
                ],
                [
                    1.8866767883300781,
                    471.5982666015625,
                    -164.7050018310547
                ],
                [
                    91.12867736816406,
                    471.287109375,
                    137.65185546875
                ],
                [
                    91.12867736816406,
                    471.287109375,
                    -137.65185546875
                ],
                [
                    -107.68222045898438,
                    469.6513671875,
                    129.31698608398438
                ],
                [
                    -107.68222045898438,
                    469.6513671875,
                    -129.31698608398438
                ],
                [
                    -160.89764404296875,
                    469.5635986328125,
                    42.55213928222656
                ],
                [
                    -160.89764404296875,
                    469.5635986328125,
                    -42.55213928222656
                ],
                [
                    166.26840209960938,
                    467.54541015625,
                    56.03529357910156
                ],
                [
                    166.26840209960938,
                    467.54541015625,
                    -56.03529357910156
                ],
                [
                    -408.370849609375,
                    -224.800537109375,
                    175.57595825195312
                ],
                [
                    -408.370849609375,
                    -224.800537109375,
                    -175.57595825195312
                ],
                [
                    -370.83984375,
                    -303.6614990234375,
                    140.11248779296875
                ],
                [
                    -370.83984375,
                    -303.6614990234375,
                    -140.11248779296875
                ],
                [
                    -456.8709716796875,
                    -133.95843505859375,
                    141.05941772460938
                ],
                [
                    -456.8709716796875,
                    -133.95843505859375,
                    -141.05941772460938
                ],
                [
                    -490.021728515625,
                    -55.340576171875,
                    54.07395935058594
                ],
                [
                    -490.021728515625,
                    -55.340576171875,
                    -54.07395935058594
                ],
                [
                    -353.25958251953125,
                    -348.99609375,
                    51.368682861328125
                ],
                [
                    -353.25958251953125,
                    -348.99609375,
                    -51.368682861328125
                ],
                [
                    35.67644500732422,
                    -484.669921875,
                    111.76681518554688
                ],
                [
                    35.67644500732422,
                    -484.669921875,
                    -111.76681518554688
                ],
                [
                    413.4012451171875,
                    267.7288818359375,
                    78.65240478515625
                ],
                [
                    413.4012451171875,
                    267.7288818359375,
                    -78.65240478515625
                ],
                [
                    -415.914794921875,
                    256.1341552734375,
                    97.88909912109375
                ],
                [
                    -415.914794921875,
                    256.1341552734375,
                    -97.88909912109375
                ],
                [
                    232.9751739501953,
                    377.6617431640625,
                    229.74461364746094
                ],
                [
                    232.9751739501953,
                    377.6617431640625,
                    -229.74461364746094
                ],
                [
                    -262.13665771484375,
                    377.8319091796875,
                    197.14073181152344
                ],
                [
                    -262.13665771484375,
                    377.8319091796875,
                    -197.14073181152344
                ],
                [
                    -434.2825927734375,
                    -0.4034423828125,
                    241.27557373046875
                ],
                [
                    -434.2825927734375,
                    -0.4034423828125,
                    -241.27557373046875
                ],
                [
                    -163.03448486328125,
                    -428.4925537109375,
                    199.17543029785156
                ],
                [
                    -163.03448486328125,
                    -428.4925537109375,
                    -199.17543029785156
                ],
                [
                    218.52459716796875,
                    -402.358642578125,
                    204.537841796875
                ],
                [
                    218.52459716796875,
                    -402.358642578125,
                    -204.537841796875
                ],
                [
                    453.4691162109375,
                    42.61964416503906,
                    203.69580078125
                ],
                [
                    453.4691162109375,
                    42.61964416503906,
                    -203.69580078125
                ],
                [
                    478.07861328125,
                    135.05499267578125,
                    50.66047668457031
                ],
                [
                    478.07861328125,
                    135.05499267578125,
                    -50.66047668457031
                ],
                [
                    317.73431396484375,
                    381.22509765625,
                    56.441123962402344
                ],
                [
                    317.73431396484375,
                    381.22509765625,
                    -56.441123962402344
                ],
                [
                    -288.7745056152344,
                    403.064208984375,
                    53.19732666015625
                ],
                [
                    -288.7745056152344,
                    403.064208984375,
                    -53.19732666015625
                ],
                [
                    -481.714111328125,
                    97.50923156738281,
                    69.11474609375
                ],
                [
                    -481.714111328125,
                    97.50923156738281,
                    -69.11474609375
                ],
                [
                    -120.38827514648438,
                    -477.293212890625,
                    83.32247924804688
                ],
                [
                    -120.38827514648438,
                    -477.293212890625,
                    -83.32247924804688
                ],
                [
                    168.91758728027344,
                    -463.8382568359375,
                    79.47159576416016
                ],
                [
                    168.91758728027344,
                    -463.8382568359375,
                    -79.47159576416016
                ]
            ],
            "landing_zones": {
                "list": [
                    [
                        -230.92266845703125,
                        -135.52206420898438,
                        421.648193359375
                    ],
                    [
                        296.309326171875,
                        -171.48773193359375,
                        362.968505859375
                    ],
                    [
                        -8.511581420898438,
                        306.99725341796875,
                        394.996826171875
                    ],
                    [
                        -10.481861114501953,
                        322.56427001953125,
                        -382.4937744140625
                    ],
                    [
                        -230.81695556640625,
                        -135.67636108398438,
                        -421.628662109375
                    ],
                    [
                        303.724853515625,
                        -183.02313232421875,
                        -351.070068359375
                    ]
                ],
                "rules": [
                    {
                        "min": 0,
                        "max": 10
                    },
                    {
                        "min": 0,
                        "max": 10
                    },
                    {
                        "min": 0,
                        "max": 10
                    },
                    {
                        "min": 0,
                        "max": 10
                    },
                    {
                        "min": 0,
                        "max": 10
                    },
                    {
                        "min": 0,
                        "max": 10
                    }
                ]
            }
        }
    ]
}